<?xml version="1.0"?>
<opencv_storage>
<stage13>
  <maxWeakCount>6</maxWeakCount>
  <stageThreshold>-7.9773318767547607e-01</stageThreshold>
  <weakClassifiers>
    <_>
      <internalNodes>
        0 -1 117503 9.9957827478647232e-03</internalNodes>
      <leafValues>
        -5.1111114025115967e-01 6.7808216810226440e-01</leafValues></_>
    <_>
      <internalNodes>
        0 -1 51133 5.5963207036256790e-02</internalNodes>
      <leafValues>
        -6.8949115276336670e-01 4.4363731145858765e-01</leafValues></_>
    <_>
      <internalNodes>
        0 -1 146575 1.5791702270507813e-01</internalNodes>
      <leafValues>
        -2.9140314459800720e-01 9.6900796890258789e-01</leafValues></_>
    <_>
      <internalNodes>
        0 -1 124281 7.8906062990427017e-03</internalNodes>
      <leafValues>
        3.2173770666122437e-01 -8.7345021963119507e-01</leafValues></_>
    <_>
      <internalNodes>
        0 -1 129800 -2.6602852158248425e-03</internalNodes>
      <leafValues>
        -9.8091477155685425e-01 1.5651981532573700e-01</leafValues></_>
    <_>
      <internalNodes>
        0 -1 115591 5.9986941050738096e-04</internalNodes>
      <leafValues>
        2.1728691458702087e-01 -9.1711378097534180e-01</leafValues></_></weakClassifiers></stage13>
</opencv_storage>
