<?xml version="1.0"?>
<opencv_storage>
<stage15>
  <maxWeakCount>8</maxWeakCount>
  <stageThreshold>-7.2661614418029785e-01</stageThreshold>
  <weakClassifiers>
    <_>
      <internalNodes>
        0 -1 11284 -1.5202638506889343e-01</internalNodes>
      <leafValues>
        7.3962265253067017e-01 -4.4226580858230591e-01</leafValues></_>
    <_>
      <internalNodes>
        0 -1 5993 -6.0015402734279633e-02</internalNodes>
      <leafValues>
        8.2404112815856934e-01 -2.9774481058120728e-01</leafValues></_>
    <_>
      <internalNodes>
        0 -1 19458 7.8613236546516418e-02</internalNodes>
      <leafValues>
        -7.6624220609664917e-01 3.7778463959693909e-01</leafValues></_>
    <_>
      <internalNodes>
        0 -1 144492 9.2041036114096642e-03</internalNodes>
      <leafValues>
        -6.5725862979888916e-01 3.3542755246162415e-01</leafValues></_>
    <_>
      <internalNodes>
        0 -1 73910 -5.9824436902999878e-04</internalNodes>
      <leafValues>
        -7.7793985605239868e-01 2.6939338445663452e-01</leafValues></_>
    <_>
      <internalNodes>
        0 -1 143136 -4.1287606582045555e-03</internalNodes>
      <leafValues>
        2.2790655493736267e-01 -8.4043490886688232e-01</leafValues></_>
    <_>
      <internalNodes>
        0 -1 58641 7.0628366665914655e-04</internalNodes>
      <leafValues>
        2.9065895080566406e-01 -8.0926430225372314e-01</leafValues></_>
    <_>
      <internalNodes>
        0 -1 127714 -3.6452844738960266e-02</internalNodes>
      <leafValues>
        7.5617349147796631e-01 -3.9201465249061584e-01</leafValues></_></weakClassifiers></stage15>
</opencv_storage>
